ACTION, PlayerFieldCount 0, EnemyFieldCount 1,PlayerHand Stop Defense ,PlayerHand Pot of Greed ,PlayerHand Mekk-Knight Avram ,PlayerHand Wind-Up Soldier ,PlayerHand Noble Knight Artorigus ,EnemyField Alexandrite Dragon;FaceUpAttack , PlayerFieldCount 1,PlayerField Wind-Up Soldier;FaceDownDefence ,PlayerHand Block Attack ,EnemyField Alexandrite Dragon;FaceUpDefence , EnemyFieldCount 2,EnemyField Noble Knight Artorigus;FaceUpAttack , EnemyFieldCount 3,PlayerHand Alexandrite Dragon ,PlayerField Alexandrite Dragon;FaceDownDefence ,PlayerHand Cyber Dragon ,PlayerHand Snowman Eater ,PlayerHand The Tricky ,PlayerField Alexandrite Dragon;FaceUpAttack , PlayerFieldCount 2,PlayerField The Tricky;FaceUpAttack ,EnemyField Wind-Up Soldier;FaceUpAttack ,EnemyField Cyber Dragon;FaceUpAttack ,PlayerField Snowman Eater;FaceUpAttack , EnemyFieldCount 4,PlayerHand Exiled Force ,EnemyField The Tricky;FaceUpAttack ,EnemyField ;FaceDownDefence ,EnemyField Sabersaurus;FaceUpAttack ,PlayerField Noble Knight Artorigus;FaceUpAttack ,PlayerHand Luster Dragon ,PlayerField Wind-Up Soldier;FaceUpAttack ,EnemyField Wind-Up Soldier;FaceUpDefence , EnemyFieldCount 0,PlayerField Noble Knight Artorigus;FaceDownDefence ,EnemyField Mekk-Knight Avram;FaceUpAttack ,PlayerField Mekk-Knight Avram;FaceDownDefence , PlayerFieldCount 3,PlayerHand Sabersaurus ,PlayerField Cyber Dragon;FaceDownDefence ,PlayerField Mekk-Knight Avram;FaceUpAttack ,PlayerField Sabersaurus;FaceDownDefence ,PlayerHand Man-Eater Bug ,EnemyField Exiled Force;FaceUpAttack ,PlayerField Man-Eater Bug;FaceUpAttack ,EnemyField The Tricky;FaceUpDefence ,PlayerField Cyber Dragon;FaceUpAttack ,PlayerField Sabersaurus;FaceUpAttack ,PlayerField Man-Eater Bug;FaceDownDefence ,PlayerField Luster Dragon;FaceUpAttack ,EnemyField Snowman Eater;FaceUpDefence ,EnemyField Snowman Eater;FaceUpAttack ,EnemyField Luster Dragon;FaceUpAttack ,PlayerField Exiled Force;FaceUpAttack ,PlayerField Snowman Eater;FaceDownDefence ,PlayerField Snowman Eater;FaceUpDefence ,EnemyField Mekk-Knight Avram;FaceUpDefence ,PlayerField Exiled Force;FaceDownDefence ,EnemyField Luster Dragon;FaceUpDefence ,EnemyField Noble Knight Artorigus;FaceUpDefence ,EnemyField Exiled Force;FaceUpDefence ,EnemyField Sabersaurus;FaceUpDefence ,PlayerField Noble Knight Artorigus;FaceUpDefence ,PlayerField Luster Dragon;FaceDownDefence ,EnemyField Man-Eater Bug;FaceUpAttack ,EnemyField Man-Eater Bug;FaceUpDefence ,PlayerField Sabersaurus;FaceUpDefence ,EnemyField Cyber Dragon;FaceUpDefence , PlayerFieldCount 4,PlayerField Man-Eater Bug;FaceUpDefence ,PlayerField The Tricky;FaceDownDefence , EnemyFieldCount 5, PlayerFieldCount 5,PlayerField Mekk-Knight Avram;FaceUpDefence ,PlayerField Wind-Up Soldier;FaceUpDefence 
Mekk-Knight Avram;Main1 MonsterSet,41232041918.58627,166161143637.4901,-0.00229644775390625,-0.019336700439453125,-207393185555.90622,-0.032772064208984375,-0.016691207885742188,-0.010564804077148438,41232041918.29897,0.15537452697753906,-0.06459808349609375,-0.13215065002441406,166161143637.44205,0.004268646240234375,166161143637.45248,-0.04680919647216797,0.39052772521972656,-0.012906074523925781,0.016653060913085938,0.03790855407714844,0.14377212524414062,41232041918.25061,0.19173717498779297,0.00591278076171875,-0.12215137481689453,787891334.4662485,166161143637.4212,-0.05267333984375,0.0637502670288086,0.033817291259765625,0.08022308349609375,-1725155648.9986591,-0.00383758544921875,0.177001953125,0.21091651916503906,166161143637.586,1.039926528930664,0.09088134765625,62111674.204236984,41232041917.692726,-0.0511016845703125,-199912216.0380125,0.1682586669921875,1.0927248001098633,-0.062408447265625,-0.01727294921875,0.47949981689453125,-0.018190383911132812,0.368988037109375,0.32485079765319824,0.10441017150878906,0.1180877685546875,0.0226898193359375,-0.07366752624511719,0.046520233154296875,-210758270.8958824,0.020719528198242188,0.2665863037109375,0.17177581787109375,0.28945159912109375,0.0,-0.1769580841064453,-0.10350418090820312,0.0,1.125631332397461,0.450286865234375,0.0,0.19451904296875,0.0,0.0,0.0,0.0,0.0,0.0,0.0,0.0,0.0
Wind-Up Soldier;Main1 MonsterSet,-1173064904025.264,-4800419873974.363,0.013916015625,0.008544921875,-0.0238037109375,5973484777999.716,-0.00140380859375,0.06884765625,-1173064904025.0676,-0.04443359375,-0.0076904296875,0.438385009765625,-4800419873974.381,0.013397216796875,-4800419873974.4,-0.0115966796875,-0.25164794921875,-0.038970947265625,0.0264892578125,-0.010894775390625,0.1812744140625,-1173064904025.4045,-0.02947998046875,-0.012420654296875,-0.085784912109375,0.33880615234375,-4800419873974.437,-0.00823974609375,-0.022613525390625,0.025115966796875,-0.070526123046875,-0.1739501953125,-0.002899169921875,0.3274688720703125,-0.206787109375,-4800419873974.51,0.0728759765625,-0.04296875,0.05322265625,-1173064904025.2363,-0.011474609375,0.20111083984375,-0.087158203125,15630410528.218567,-0.06298828125,-0.0205078125,1698931129.149643,0.2899169921875,0.046875,5562371311.178333,-0.315673828125,-0.162384033203125,-0.040771484375,-0.2952728271484375,-0.038818359375,-0.17279052734375,0.36669921875,0.242431640625,0.9853515625,-0.224609375,0.74945068359375,-3884322887.3623857,-0.07138824462890625,-592210.8338831378,-0.1937255859375,0.180999755859375,-0.0853271484375,-0.216064453125,0.0,0.22186279296875,0.0,0.0,0.0,0.0,0.0,-0.205810546875,0.0
Noble Knight Artorigus;Main1 MonsterSet,2825298165363.384,-356160090957.53906,-0.01904296875,-0.0048828125,0.018798828125,-0.085205078125,-2469138074405.631,-0.0069580078125,2289948418590.5664,535349746772.98645,-0.005859375,-0.0936279296875,-356160090957.4912,0.03387451171875,-356160090957.52966,-0.02960205078125,535349746773.6959,-0.00201416015625,-0.021728515625,-0.06121826171875,535349746772.6999,1754598671817.7212,535349746772.8456,0.035430908203125,-0.0190887451171875,535349746772.88513,-356160090957.60065,-0.079010009765625,-0.04233551025390625,0.0017852783203125,0.0077667236328125,535349746772.77765,0.0081939697265625,535349746772.9052,0.32665443420410156,-356160090957.4601,535349746772.77686,-0.0511627197265625,535349746773.8377,1219248925044.1304,-0.10113525390625,350630779.13731384,535349746772.6395,535349746772.6351,-0.028329849243164062,-0.0073699951171875,340015214.66833067,-0.186920166015625,535349746772.80475,535349746772.6267,535349746772.6123,535349746772.5399,0.27813148498535156,662709098.653957,0.003154754638671875,-258440008.29799613,535349746772.7915,535349746772.77734,-0.23123836517333984,535349746773.7018,-0.09964370727539062,0.7459220886230469,-0.0774383544921875,-0.12580490112304688,0.0,535349746772.5111,0.0,-0.08911323547363281,0.0,0.0,0.0,0.0,0.0,0.0,0.0,0.0,0.0
Mekk-Knight Avram;Main1 Summon,85309088334.45142,194357458973.50156,0.0186767578125,0.0218353271484375,-279666547307.85864,0.00028228759765625,-0.059436798095703125,0.0723724365234375,85309088334.24669,0.8814811706542969,0.005863189697265625,-0.08345794677734375,194357458973.44296,0.1245269775390625,194357458973.47775,-0.04614830017089844,0.06447792053222656,-0.029890060424804688,-0.05949592590332031,0.039424896240234375,0.18573760986328125,85309088334.14363,0.28276824951171875,0.06962013244628906,0.12103271484375,949730956.3507156,194357458973.2184,0.0060882568359375,0.05637550354003906,0.015899658203125,0.02469635009765625,-2079517381.0195465,-0.004329681396484375,0.1186065673828125,-0.011701583862304688,194357458973.70834,0.09405326843261719,0.051239013671875,74869943.55951309,85309088333.75288,-0.00323486328125,-240975895.80998993,0.11407470703125,-0.12537670135498047,0.0013427734375,0.0726318359375,0.18141937255859375,-0.051792144775390625,0.14643478393554688,0.9774293899536133,-0.06258010864257812,0.213287353515625,0.1388397216796875,0.0079498291015625,0.07665824890136719,-254049823.1426078,-0.1980137825012207,0.0722808837890625,-0.0986785888671875,0.3464851379394531,0.0,0.008390426635742188,0.01589202880859375,0.0,0.05045127868652344,-0.0201568603515625,0.0,0.309234619140625,0.0,0.0,0.0,0.0,0.0,0.0,0.0,0.0,0.0
Wind-Up Soldier;Main1 Summon,-390432716355.2547,2141681869245.688,0.03900146484375,0.034515380859375,-0.01885986328125,-1751249152890.446,0.0517730712890625,0.090087890625,-390432716355.2235,-0.2547149658203125,0.0655364990234375,0.03546142578125,2141681869245.581,0.049163818359375,2141681869245.5288,-0.00975799560546875,-0.0929107666015625,-0.0185394287109375,-0.0241241455078125,0.002532958984375,0.0541839599609375,-390432716355.0495,-0.0045166015625,0.2084808349609375,0.244232177734375,-0.216064453125,2141681869245.4956,0.0113983154296875,0.0784759521484375,0.1355133056640625,0.14617919921875,0.7017669677734375,0.0674285888671875,0.00540924072265625,0.1571044921875,2141681869245.8555,-0.32635498046875,0.12744140625,-0.3668212890625,-390432716355.20593,0.0501708984375,-0.2142333984375,-0.1124267578125,-6496940190.454163,-0.0458984375,0.05810546875,-706178120.7767334,0.40704345703125,-0.185791015625,-2312056593.816284,-0.103363037109375,-0.0494232177734375,0.24554443359375,0.10492706298828125,0.1522216796875,-0.24517822265625,-0.35919189453125,-0.1318359375,-0.0178680419921875,-0.165496826171875,0.21261119842529297,1614558583.3488133,0.014404296875,246158.49746008884,-0.268310546875,-0.42493438720703125,0.00128173828125,0.39404296875,0.0,0.205474853515625,0.0,0.0,0.0,0.0,0.0,0.409332275390625,0.0
Noble Knight Artorigus;Main1 Summon,-2932817189299.066,469626176418.81177,0.0107421875,-0.04150390625,0.00244140625,-0.013427734375,2463191012880.44,-0.0662841796875,-2395957228337.565,-536859960961.03345,0.0037841796875,-0.12109375,469626176418.82996,-0.03131103515625,469626176418.84235,-0.003173828125,-536859960961.56445,0.01202392578125,-0.0845947265625,-0.000457763671875,-536859960961.6353,-1859097267376.084,-536859960961.43835,-0.0709075927734375,0.0292816162109375,-536859960961.36804,469626176418.9232,0.034393310546875,0.0043182373046875,-0.1600189208984375,-0.03167724609375,-536859960961.55023,-0.02408599853515625,-536859960961.46564,-0.08172798156738281,469626176418.7341,-536859960961.5493,-0.058602333068847656,-536859960961.8469,-1322237306414.3953,0.00665283203125,-58610225.789489746,-536859960961.59656,-536859960960.5299,-0.0067348480224609375,-0.07860755920410156,-56835764.82534599,-0.15885162353515625,-536859960961.54407,-536859960961.6697,-536859960961.5868,-536859960961.5504,0.13944530487060547,-110776156.04777174,0.00028228759765625,43199936.059958845,-536859960961.45276,-536859960961.2287,-0.13215255737304688,-536859960961.5272,-0.09496498107910156,-0.10606002807617188,-0.1768646240234375,0.18729400634765625,0.0,-536859960961.61115,0.0,0.23009109497070312,0.0,0.0,0.0,0.0,0.0,0.0,0.0,0.0,0.0
Pot of Greed;Main1 Activate,-97612419670.34135,-1206681880400.363,-0.0504913330078125,1304294300070.9365,0.01043701171875,-0.00714874267578125,-0.06286239624023438,-0.057865142822265625,-97612419671.10744,0.9380760192871094,-0.14028549194335938,0.08109283447265625,-1206681880400.2812,-0.08449363708496094,-1206681880400.2922,-0.016611099243164062,1.148061752319336,0.0001125335693359375,0.040679931640625,-0.15431976318359375,1.0613250732421875,-97612419671.88794,1.070291519165039,-0.0482177734375,-0.04467964172363281,0.8676929473876953,-1206681880400.1785,0.023876190185546875,0.028041839599609375,-0.07867050170898438,0.07915496826171875,0.9122409820556641,0.08331489562988281,1.0254974365234375,-0.55322265625,-1206681880400.3442,0.9449634552001953,-0.005859375,0.93060302734375,-97612419672.55225,-0.112548828125,0.619171142578125,0.97808837890625,0.889190673828125,-0.03076171875,0.001220703125,1.299102783203125,-0.12286376953125,0.75787353515625,0.92822265625,0.96484375,1.010009765625,-0.12046432495117188,0.325469970703125,0.07666015625,0.743743896484375,1.26129150390625,0.627410888671875,-0.22772216796875,1.2381591796875,2817552729.745003,-0.325592041015625,-0.16705322265625,-0.326629638671875,-10853249100.751038,0.85565185546875,0.13446044921875,0.0247802734375,0.0,0.0,-97612419672.06577,0.0,1.0195770263671875,0.0,0.0,0.0,0.0
 GoToBattlePhase,63716815884.07065,-63716815883.65297,-0.06024932861328125,-0.2312469482421875,-0.024383544921875,-0.05347442626953125,-0.03629302978515625,0.02680206298828125,63716815884.36038,0.13333511352539062,-0.15313720703125,-0.05724334716796875,-63716815883.645706,0.0055999755859375,-63716815883.64969,-0.04052734375,0.17644119262695312,-0.023761749267578125,-0.0345458984375,-0.1642608642578125,0.061511993408203125,63716815884.45242,-0.12343215942382812,-0.0377960205078125,0.027149200439453125,0.14330291748046875,-63716815883.637085,-0.030364990234375,-0.008213043212890625,-0.13107681274414062,0.03813934326171875,0.16815567016601562,-0.0517578125,0.014237403869628906,-0.14665603637695312,-63716815883.55742,0.18706178665161133,0.0073261260986328125,0.21393680572509766,63716815884.60944,-0.03049945831298828,0.15908241271972656,0.1319122314453125,0.19221782684326172,-0.0411984920501709,0.058182477951049805,0.1536102294921875,-0.002658843994140625,-0.17710304260253906,0.1543750762939453,0.1572566032409668,0.1480884552001953,-0.011474609375,0.30060291290283203,0.020860671997070312,-0.17129898071289062,0.14859533309936523,-0.20739102363586426,-0.0279083251953125,0.18886280059814453,0.12941551208496094,-0.07238197326660156,0.00243222713470459,-0.0023565292358398438,-0.09096550941467285,0.23846673965454102,0.2954549789428711,-0.16401004791259766,-0.014962196350097656,0.03881263732910156,63716815884.45299,-0.011999130249023438,0.42626380920410156,-63716815883.21364,63716815884.66168,-0.5545425415039062,-0.06578826904296875
Block Attack;Main1 Activate,1802934986496.4897,-1494813817975.0793,0.017578125,-0.034912109375,-0.0709228515625,-0.0174560546875,0.0411376953125,-0.018798828125,1016870277400.1788,786064709096.5742,-308121168521.1693,0.2828369140625,-1494813817975.0303,-0.14422607421875,-1494813817974.8882,0.0087890625,786064709096.4961,-0.0494384765625,-0.046112060546875,-0.081390380859375,786064709096.435,230805568303.97388,786064709096.2104,-0.122222900390625,-0.020233154296875,786064709096.4548,-1494813817974.892,-0.0075531005859375,0.001678466796875,-0.0845489501953125,-0.17087554931640625,786064709096.6385,-0.00565338134765625,786064709096.3848,-137451220447.47458,353410583186.78375,786064709096.4469,-0.01611328125,786064709096.2849,230805568303.80746,0.01806640625,786064709097.3081,786064709096.3679,786064709096.3368,-0.0220947265625,-0.04046630859375,786064709096.4819,-0.1314697265625,786064709096.2782,786064709096.77,786064709096.5223,786064709096.7295,-0.03167724609375,-0.22265625,-0.093994140625,786064709096.4009,786064709096.4796,786064709096.3215,-0.040283203125,786064709096.4844,-0.32540130615234375,-1004575930.7689079,-0.170989990234375,-0.27906036376953125,0.0006103515625,786064709096.4021,-0.4462890625,-0.1787109375,0.0,0.0,0.0,0.0,786064709096.3724,-1494813817975.0654,0.0,0.0,0.0
Stop Defense;Main1 Activate,1048757503081.1315,5017233264801.352,-6065990767882.346,-0.0211181640625,0.09295654296875,-0.1024169921875,0.0062255859375,0.08734130859375,1048757503081.9915,-0.692657470703125,0.185546875,-0.162506103515625,5017233264801.275,0.24725341796875,5017233264801.078,0.007171630859375,-1.05621337890625,0.0260467529296875,-0.00970458984375,0.03472900390625,-0.631744384765625,1048757503082.7681,-0.743408203125,0.0694580078125,0.3123779296875,-0.26934814453125,5017233264800.967,-0.20269775390625,0.1251220703125,-0.0538330078125,0.607086181640625,-0.1026611328125,0.086669921875,-0.729248046875,0.1329345703125,-1557594365193.504,-0.672119140625,0.03076171875,-0.5631103515625,1048757503083.7075,0.126953125,-0.5643310546875,-0.83056640625,-0.35595703125,0.142333984375,0.13720703125,-0.119964599609375,-0.0413818359375,-0.90478515625,-0.7713623046875,-1.20458984375,-0.5836181640625,0.175994873046875,-0.026611328125,0.11181640625,-0.85498046875,-0.0924072265625,-0.7816162109375,-0.021636962890625,-0.70361328125,-0.009765625,0.213623046875,0.0863037109375,-0.075927734375,14384110509.801636,-0.5343017578125,0.0,0.002197265625,0.0,0.146484375,0.0,0.0,0.0,5017233264800.927,0.0,0.0,0.0
Alexandrite Dragon;Main1 MonsterSet,593232805785.3668,858275433682.6528,-0.0501708984375,-0.07830810546875,-0.0072021484375,-0.0799560546875,-0.084136962890625,0.0107421875,482058619709.512,111174186076.02386,-0.00555419921875,-0.126617431640625,858275433682.6405,0.049468994140625,858275433682.6902,-1451508239467.6726,111174186076.03935,-0.058349609375,-0.07289886474609375,-0.07566070556640625,111174186075.53989,370884433633.641,111174186075.7903,-0.0400848388671875,-0.10973358154296875,111174186076.49316,858275433682.6382,-0.049205780029296875,-0.10090255737304688,-0.07030868530273438,-0.06134033203125,111174186075.59482,0.0358123779296875,3650982478.217579,0.1812744140625,858275433682.461,111174186075.6207,-0.031494140625,111174186076.29126,259710247557.43884,-0.06329345703125,111174186075.93643,111174186076.0957,111174186075.66351,0.018096923828125,-0.0115966796875,2476329332.680976,0.22452926635742188,111174186075.77722,-2892782311.4956164,-704398991.480104,111174186075.80753,0.164306640625,-0.2823600769042969,-0.047607421875,111174186075.63962,297938510.6940709,111174186075.95715,-0.06963348388671875,111174186075.64087,-0.1366119384765625,0.0,0.22022438049316406,-0.1778106689453125,111174186075.79697,111174186075.64944,-0.102020263671875,-0.09941864013671875,0.0,-0.028472900390625,0.0,0.0,0.0,0.0,0.0,0.0,0.0
Alexandrite Dragon;Main1 Summon,1157774674276.865,-428540930562.5503,-0.022216796875,0.04248046875,-0.0478515625,-0.00146484375,0.0330810546875,-0.07574462890625,940677902305.0885,217096771972.72028,-0.0203857421875,-0.196746826171875,-428540930562.51794,-0.126220703125,-428540930562.50195,-729233743714.0874,217096771972.53894,0.0375213623046875,-0.05224609375,-0.0146331787109375,217096771971.7923,723581130333.132,217096771971.8761,-0.07474517822265625,-0.05340576171875,217096771971.83035,-428540930562.17505,-0.08010101318359375,0.01761627197265625,-0.02973175048828125,0.0589447021484375,217096771970.79214,-0.021877288818359375,-898600121.0306778,-0.12354278564453125,-428540930562.4792,217096771971.84323,-0.024200439453125,217096771971.45978,506484358361.386,-0.0192718505859375,217096771971.6651,217096771971.7766,217096771971.5465,-0.01373291015625,-0.05230712890625,-609487953.266085,-0.06636238098144531,217096771971.7588,711987677.4907702,173370598.94820222,217096771971.99915,-0.103759765625,-0.14344167709350586,-0.07879638671875,217096771971.54355,-73330283.93500392,217096771971.70358,-0.10106277465820312,217096771972.21222,-0.07410812377929688,0.0,-0.13181686401367188,-0.19662094116210938,217096771971.73938,217096771972.35913,-0.1097564697265625,0.33625030517578125,0.0,-0.28832244873046875,0.0,0.0,0.0,0.0,0.0,0.0,0.0
Snowman Eater;Main1 MonsterSet,425468986485.8709,581705678699.0876,-0.0386962890625,0.00579833984375,-0.090484619140625,-0.00115966796875,-0.03411865234375,0.00299072265625,425468986486.65955,-0.9739990234375,-0.0229034423828125,0.3330535888671875,581705678699.0837,-0.06638336181640625,581705678699.2083,-0.0482330322265625,-0.4980010986328125,-0.0444793701171875,-1007174665184.6409,-0.0205841064453125,-0.944915771484375,425468986487.589,-0.82366943359375,-0.09588623046875,-0.06552886962890625,23621171990.464043,581705678699.4427,-0.0916900634765625,-0.07464599609375,-0.0208282470703125,-0.1199951171875,24917414714.90695,-0.039306640625,-0.00872802734375,0.0930938720703125,581705678698.8752,-1.1509761810302734,0.0277099609375,0.101776123046875,425468986486.92847,0.01963043212890625,12716330728.145805,-0.79998779296875,-19366147442.036015,-0.007568359375,-0.0611572265625,22663360477.998085,-0.203216552734375,-0.822021484375,-3071956240.645655,-0.428802490234375,-0.837066650390625,0.04827880859375,0.29094696044921875,-0.03277587890625,1550080535.8908656,-1.047943115234375,-0.295318603515625,-0.11725234985351562,0.0,-0.23264312744140625,0.0,-0.191162109375,-0.21871185302734375,-0.90814208984375,0.0,0.7317123413085938,-0.1627197265625,0.0,0.0,0.0,0.0,0.0,0.0,0.0,0.0,0.0
Snowman Eater;Main1 Summon,1020535599448.3772,-5028553662207.588,0.021240234375,-0.0972900390625,-0.0439453125,-0.0189208984375,-0.05426025390625,0.080322265625,1020535599448.2628,-0.0096435546875,0.06939697265625,0.086822509765625,-5028553662207.621,0.068695068359375,-5028553662207.695,-0.037261962890625,0.49884033203125,-0.001556396484375,4008018062759.3506,-0.05303955078125,-0.138946533203125,1020535599448.0836,0.148529052734375,-0.011077880859375,-0.012176513671875,-175849835463.4788,-5028553662207.79,-0.027587890625,0.053009033203125,0.04278564453125,0.016937255859375,-185499825307.5826,-0.052001953125,-0.045166015625,0.21014404296875,-5028553662207.704,0.72222900390625,0.0263671875,-0.09375,1020535599447.917,0.01318359375,-94667811874.29195,0.4093475341796875,144172941233.32083,0.028076171875,0.04296875,-168719325726.69217,-0.118896484375,0.245849609375,22869441011.92825,0.0830078125,0.081298828125,0.052734375,-0.20355224609375,0.08447265625,-11539707144.995985,-0.00830078125,0.282470703125,0.030029296875,0.0,-0.11328125,0.0,-0.125732421875,0.9666366577148438,0.00927734375,0.0,-0.090118408203125,-0.0068359375,0.0,0.0,0.0,0.0,0.0,0.0,0.0,0.0,0.0
Cyber Dragon;Main1 SpSummon,-4458634357585.837,828427121260.3022,-0.023193359375,0.0361328125,-0.0577392578125,-0.0755615234375,-0.0311279296875,-0.1165771484375,-5984685384.605835,-4772566286.507996,0.000732421875,-0.2003173828125,828427121260.3335,-0.05316162109375,828427121260.3657,0.05126953125,-1917834969.1505737,3630207236325.8267,-0.0423583984375,-0.000274658203125,2319699845.9008484,5885480861.192505,-1478145473.0097504,-0.022796630859375,0.015228271484375,-3298713683.2464676,828427121260.2948,-0.0228118896484375,-0.059234619140625,-0.02422332763671875,-0.094146728515625,834347928.3467026,-0.0614166259765625,899409217.312912,-0.17551231384277344,54044532.03240967,19297262.105905056,-0.0298919677734375,-103231382.13576913,10.328581852838397,-0.047809600830078125,0.0,0.0,0.0,-0.056285858154296875,-0.0576171875,0.0,0.12438201904296875,0.0,0.0,0.0,0.0,0.12985992431640625,0.0917816162109375,-0.0805511474609375,0.0,0.0,0.0,-0.023834228515625,0.0,-0.14907073974609375,0.0,-0.1493988037109375,0.0005054473876953125,0.0,0.0,0.6845550537109375,-0.1862640380859375,0.0,0.0,0.0,0.0,0.0,828427121260.1188,0.0,0.0,0.0
The Tricky;Main1 SpSummon,299737320090.78094,-2539311849264.6206,0.0191650390625,-0.028350830078125,-0.064117431640625,-0.0077056884765625,-0.0335235595703125,-0.04150390625,299737320091.049,0.0681610107421875,-0.014556884765625,-0.28790283203125,-2539311849264.506,0.042724609375,-2539311849264.5635,-0.013431549072265625,-0.010211944580078125,0.00553131103515625,-0.053466796875,2239574529174.0166,0.07192611694335938,299737320091.4746,-0.31711578369140625,0.04150581359863281,-0.07099151611328125,0.16316795349121094,-2539311849264.717,-0.11421966552734375,-0.03716278076171875,0.01273345947265625,-0.023654937744140625,0.00965118408203125,-0.00439453125,-0.0238037109375,-0.12542724609375,-2539311849264.657,-0.096435546875,0.025634765625,-0.2115478515625,299737320091.3474,0.0008544921875,0.24774169921875,-0.06646728515625,-0.004638671875,0.0068359375,-0.033447265625,-0.060791015625,-0.0927734375,-0.09423828125,0.08660888671875,0.1027679443359375,-0.183837890625,-0.209808349609375,-0.150665283203125,0.00445556640625,-0.3094482421875,-0.004364013671875,-0.6234121322631836,-0.2958984375,-0.25445556640625,-0.31396484375,-79212271.28405586,0.035400390625,0.14540863037109375,-9145619743.074661,-0.287841796875,0.14605712890625,-0.3492431640625,0.0,0.0,299737320092.28503,0.0,0.0,0.0,0.0,0.0,0.0
Exiled Force;Main1 MonsterSet,1154548284614.0298,4116313205748.073,0.067626953125,0.033935546875,-0.025390625,-0.0699462890625,-0.02301025390625,-0.07073974609375,1154548284613.7568,0.73638916015625,0.042083740234375,-0.10247802734375,4116313205748.1323,0.0185546875,4116313205748.08,0.030181884765625,-0.0421295166015625,0.019805908203125,-0.0077972412109375,-0.0171051025390625,0.4994049072265625,1154548284613.721,0.1554107666015625,0.0558013916015625,-0.0009918212890625,-34407436011.45187,4116313205748.3364,-5270861490361.981,-0.02252197265625,0.034332275390625,-0.066131591796875,-0.11309814453125,-0.01141357421875,1.07080078125,-60000752503.89978,4116313205748.058,0.2530517578125,-0.0517578125,-0.2061767578125,1154548284613.362,-0.01171875,1850522789.9484253,0.226531982421875,0.1804046630859375,-0.0107421875,-0.007568359375,0.47113037109375,0.03369140625,0.3583984375,1.15576171875,8734585193.116837,0.076904296875,-0.123046875,-0.1300048828125,-0.00341796875,-7936341117.559691,-4351162073.64039,0.40887451171875,-0.077880859375,0.0,0.0,-0.492034912109375,0.4984130859375,-0.14508056640625,1.067138671875,0.1221923828125,0.8861083984375,-0.25128173828125,0.0,0.0,0.0,0.0,0.0,0.0,0.0,0.0,0.0
Exiled Force;Main1 Summon,2922161603221.163,-563222572197.0039,-0.05908203125,-0.00830078125,-0.038330078125,-0.0821533203125,-0.0433349609375,-0.025390625,2922161603221.861,-0.6832275390625,0.0174560546875,-0.0938720703125,-563222572197.0826,-0.0306396484375,-563222572197.0594,-0.0377197265625,-0.97943115234375,0.033782958984375,-0.040069580078125,0.008941650390625,-0.88055419921875,2922161603222.684,-0.808013916015625,-0.03125,0.0582275390625,608460435.2507935,-563222572197.0538,-2358939031023.8633,0.0001220703125,-0.0054931640625,0.01947021484375,-0.544921875,-0.046875,-0.827392578125,1061052150.8065186,-563222572197.0251,-0.882080078125,-0.033294677734375,0.01959228515625,2922161603224.523,-0.037841796875,-32724609.350097656,-0.84716796875,-0.920654296875,-0.0311431884765625,-0.0550537109375,-1.864166259765625,0.09405517578125,-0.709716796875,-1.0445556640625,-154462236.2024231,-0.86834716796875,0.017181396484375,-0.2658538818359375,-0.0303802490234375,140346103.35583615,76945866.24483442,-1.65679931640625,-0.048614501953125,0.0,0.0,-0.10186767578125,-0.12271881103515625,-0.11907958984375,-0.874755859375,-0.890289306640625,-0.12176513671875,0.880126953125,0.0,0.0,0.0,0.0,0.0,0.0,0.0,0.0,0.0
Luster Dragon;Main1 MonsterSet,277262856490.30634,-471050838780.2583,0.0206298828125,-0.070648193359375,0.015533447265625,-0.0505523681640625,-0.088958740234375,-0.0461883544921875,277262856489.97095,-0.07912445068359375,-0.0232086181640625,0.02545166015625,-471050838780.17163,-0.08336639404296875,-471050838780.1589,-0.054412841796875,0.44818878173828125,-0.09188079833984375,-0.14141464233398438,-0.0424957275390625,0.2251739501953125,277262856489.72235,0.3538970947265625,-0.06391143798828125,-0.02410125732421875,0.2750701904296875,-471050838780.1252,-0.01697540283203125,-0.15819549560546875,-0.04982757568359375,-0.05803680419921875,0.153961181640625,193787982290.33325,0.128082275390625,-0.16556549072265625,-471050838780.4713,0.09136962890625,-0.150177001953125,23280204294.689926,277262856489.1115,-0.0465087890625,-6307574347.855446,0.21526718139648438,-15031075127.098976,-0.0852508544921875,-0.046051025390625,-7190591864.589497,0.13203048706054688,0.3870849609375,-7518508281.457436,0.07518291473388672,0.1135711669921875,-0.2320556640625,-0.34146881103515625,0.0086669921875,264323734.0216705,0.3358154296875,0.258056640625,-0.25445556640625,474193.33809353533,0.068756103515625,0.0,-0.18625640869140625,-0.01412200927734375,0.146453857421875,0.7598648071289062,-0.104217529296875,0.242431640625,0.0,0.0,0.0,0.0,0.0,-471050838780.0169,0.0,0.0,0.0
Cyber Dragon;Main1 MonsterSet,-280976295.57909274,7257127578798.6045,0.11422505072783018,0.07470011908470306,0.11086466529066423,-0.004571883995049625,0.03934190174002772,-0.07667540705660254,-6188726379857.845,-0.0010403288131201338,-0.0022667063780715535,-0.15184911707710724,7257127578798.543,0.2322857542624272,7257127578798.597,-0.07994446123233942,0.4262146325918015,-1068401198940.7957,-0.08827425030847183,0.0233293447163795,0.02696171773750588,-6188726379857.84,-0.0339513241536512,-0.031085723202217946,0.0735371615174367,-0.035804594607911494,-412750385606.4349,-0.06494276128636742,-0.03431146862928153,0.17231799794191272,0.3350199152674543,0.07888448039593743,-0.16251493225264668,0.149169921875,-0.1986083984375,7257127578798.701,-573209732609.9258,0.1307373046875,0.840087890625,-6188726379857.84,0.0517578125,-0.056640625,-0.0732421875,-0.1611328125,-0.046875,0.09698486328125,-568285333552.7812,-0.206298828125,0.0830078125,-826713197380.3273,0.05859375,0.1044921875,0.35693359375,-132365661911.30757,0.02099609375,-0.046630859375,-0.06591796875,0.0361328125,-0.2669677734375,-0.4658203125,0.4755859375,0.0,0.0,-0.2490234375,0.13720703125,-0.054931640625,0.0,0.0,0.0,0.0,0.0,0.0,0.0,0.0,0.0,-0.0810546875,0.0
Luster Dragon;Main1 Summon,922615010777.5593,2015907138508.1614,0.0684814453125,0.0145263671875,0.0142822265625,0.07904052734375,0.028656005859375,0.05108642578125,922615010777.27,0.271484375,-0.04022216796875,-0.038360595703125,2015907138508.1284,0.147674560546875,2015907138508.0298,-0.05841064453125,-0.7518157958984375,0.09423828125,0.0330657958984375,-0.010040283203125,0.234222412109375,922615010777.0068,0.3444976806640625,0.031829833984375,0.1751556396484375,0.2855987548828125,2015907138508.203,0.028411865234375,-0.005157470703125,0.03167724609375,0.09075927734375,0.246856689453125,-2938522149285.8,0.1424560546875,-0.19287109375,2015907138508.2983,0.569091796875,0.074371337890625,-115888409517.97986,922615010776.8597,0.03466796875,31398983867.855988,1.1124267578125,74824403075.45279,-0.0020751953125,0.03253173828125,35794628093.97536,-0.0482177734375,0.35986328125,37426989714.37293,0.67938232421875,0.281005859375,0.13134765625,0.0908966064453125,0.068603515625,-1315798467.482183,0.1929931640625,0.230224609375,0.1329345703125,-2360525.3227335094,0.187255859375,0.0,-0.00445556640625,-0.1056671142578125,0.177276611328125,0.627410888671875,-0.02899169921875,0.0421600341796875,0.0,0.0,0.0,0.0,0.0,2015907138508.167,0.0,0.0,0.0
Cyber Dragon;Main1 Summon,437218053.75787556,5629235500721.578,-0.07323338744120723,-0.011814437538882394,0.04228584827364218,-0.00481369976110213,-0.19945130386752913,0.17203422223332304,-3634617681311.556,0.11785127174714294,0.034461494586949026,0.6901650670511428,5629235500721.334,0.12997439301129748,5629235500721.543,-0.06373549294900255,0.5471774976434662,-1994617819410.1282,0.04166778668397382,-0.07924188816430999,0.012204914495892921,-3634617681311.746,0.23865321171916115,0.3942271025229628,0.2087318884373076,-0.08254560250096121,-294166838845.9116,-0.07117813817789032,0.06444176615573682,0.1586239076247734,0.42417197456288125,-0.031038843018571294,-0.008024180797318203,-0.01220703125,1.166015625,5629235500721.873,-411086543927.4724,0.12091064453125,0.05322265625,-3634617681312.0557,-0.19091796875,1.01611328125,0.001953125,0.544677734375,0.025390625,0.17522430419921875,-408525657028.92377,0.9510498046875,0.02734375,-594278978100.08,0.06201171875,0.30517578125,0.16650390625,-95150038886.32735,0.5517578125,0.019287109375,0.19580078125,0.048828125,0.0802001953125,0.7509765625,0.2470703125,0.0,0.0,0.073974609375,-0.038818359375,-0.059326171875,0.0,0.0,0.0,0.0,0.0,0.0,0.0,0.0,0.0,-0.01068115234375,0.0
Wind-Up Soldier;Main1 Activate,-505272999.699852,-767797236570.4008,0.2633373893051394,0.11441329099695795,0.0269805282003045,0.23623994778471036,-0.06793929434890827,0.5680505306321577,-19353389071.153427,-55565607170.59592,-0.19375309444119437,1.3888589949889407,-767797236571.1284,0.0839067853567087,-767797236571.7128,0.02311827718269338,-15617889762.780607,-0.05955538131556559,0.5690834152388787,-0.19254279285273102,-0.07149835428912332,-19353389070.656345,-0.19711688709677855,0.4408230845358282,0.6139821735296646,-4104195417.375137,-767797236571.981,0.11112134277752489,0.19690149884077568,0.6006723715591747,1.0921093486875204,4696078817.453386,0.3341067308527339,787150625640.979,0.8026123046875,-767797236570.0586,288621096.9108313,0.7860260009765625,-220618317.72612593,-19353389071.622314,0.3907804489135742,-6516810.030076488,0.028564453125,-107363579.85265307,0.32833099365234375,0.92718505859375,0.0,0.82806396484375,-0.7977237701416016,0.0,-30999013911.12628,0.0,0.9882354736328125,0.0,0.3328857421875,0.0,21471016564.83658,0.659912109375,1.5044708251953125,0.0,30999013909.828583,0.0,0.0,0.0,0.0,0.0,0.0,1.7528076171875,0.0,0.0,-24049467888.14557,0.0,0.0,0.0,0.0,-21471016563.45755,0.0
Sabersaurus;Main1 MonsterSet,-2684523853946.1523,1565932937212.9731,-0.025390625,-0.014892578125,-0.082275390625,-0.04150390625,-0.013427734375,-0.082275390625,-2147089842123.169,1637863693.1052246,0.046875,-0.201904296875,1565932937213.133,-0.15264892578125,1565932937213.1702,-0.02972412109375,-537434011823.0918,-0.0072021484375,-0.084930419921875,-0.003387451171875,-537434011822.6985,-1609655830300.2593,-537434011823.0176,-0.1934814453125,-0.23284912109375,184976701.8128662,1565932937213.175,0.0020751953125,-0.1171417236328125,-0.1699066162109375,-0.1095428466796875,-537434011823.0272,-0.04742431640625,-537434011822.9447,-0.07806015014648438,1565932937213.0237,-537434011823.0273,-0.102783203125,-537434011823.1442,-1072221818477.2906,1118590916733.454,-1966013747.8968048,-537434011822.9524,-911992680.4397621,0.023159027099609375,-0.027099609375,-516459670.3110266,-0.17646026611328125,-537434011823.01697,-1384555975.1821206,-537434011822.0322,-537434011822.8685,-0.1237335205078125,28.858022093772888,-0.0621337890625,-537434011823.1178,-537434011823.0392,-537434011823.0558,1920791611.1834412,-537434011823.11646,-1920791610.5242157,0.0,0.0,-0.125701904296875,-537434011822.9911,0.0,0.0,-1.210693359375,0.0,0.0,0.0,0.0,0.0,0.0,0.0,0.0,0.0
Sabersaurus;Main1 Summon,2586301976664.557,-954783402527.7224,0.10009765625,0.084716796875,-0.017822265625,0.1021728515625,-0.0234375,-0.0869140625,2068793769095.4995,-766914578.59021,-0.019287109375,-0.0938720703125,-954783402527.7266,0.0628662109375,-954783402527.7374,-0.0091552734375,517508207568.8358,-0.02874755859375,0.025787353515625,0.04852294921875,517508207569.2843,1551285561526.2356,517508207569.28577,0.056732177734375,-0.07427978515625,-86613635.74838257,-954783402527.9098,-0.037994384765625,0.05206298828125,-0.028594970703125,0.097900390625,517508207570.1338,-0.0856475830078125,517508207568.99207,-0.23247385025024414,-954783402527.5903,517508207569.1339,-0.03759765625,517508207569.30225,1033777353958.0775,-1631518574136.7366,920567817.2838745,517508207569.57715,427032167.04829407,-0.010730743408203125,-0.02398681640625,241827480.5666728,-0.0216217041015625,517508207569.18634,648305574.3349524,517508207569.28754,517508207568.8872,0.046230316162109375,-13.512392865493894,-0.053558349609375,517508207568.91693,517508207568.9556,517508207569.5302,-899392968.4592743,517508207568.9156,899392968.3656616,0.0,0.0,0.025604248046875,517508207569.40247,0.0,0.0,0.06756591796875,0.0,0.0,0.0,0.0,0.0,0.0,0.0,0.0,0.0
Man-Eater Bug;Main1 MonsterSet,486091242642.4933,-378377769678.4252,-0.0106201171875,-0.02294921875,0.011688232421875,-0.028533935546875,-0.0413055419921875,-0.046600341796875,486091242642.8595,0.23974609375,-0.079559326171875,0.077545166015625,-378377769678.4167,-0.0970306396484375,-378377769678.3708,-0.0742645263671875,-0.163116455078125,-0.0289459228515625,-0.083221435546875,0.002899169921875,-0.5449066162109375,486091242642.8198,-0.5066986083984375,-0.0984039306640625,-0.0550384521484375,0.9688873291015625,-378377769678.3939,-0.0326385498046875,-0.0326080322265625,-0.110687255859375,-0.102294921875,-26495898.081619263,-0.028289794921875,-0.5035781860351562,-0.092926025390625,-378377769678.5563,0.526702880859375,-0.0975341796875,0.45391845703125,486091242643.2378,-0.09454345703125,-365668179.9266052,-0.292694091796875,624374257.6822815,-107713472963.68732,-0.097442626953125,398988679.4989195,-0.2311859130859375,-0.40399169921875,-0.5653971433639526,308364584.82987577,-0.4102058410644531,-0.285369873046875,-0.2771148681640625,-0.139129638671875,-0.4334716796875,-0.5389304161071777,-0.420745849609375,0.02463531494140625,-0.5506248474121094,0.00231170654296875,0.30384063720703125,-0.24975204467773438,-0.34812164306640625,-0.4372711181640625,-0.1512737274169922,-0.24049758911132812,-0.085845947265625,0.0,0.0,0.0,0.0,0.0,-378377769678.371,0.0,0.0,0.0
Man-Eater Bug;Main1 Summon,-2164623014723.8894,3667730611849.4727,-0.00146484375,-0.018798828125,-0.0205078125,-0.010986328125,0.02410888671875,0.01123046875,-2164623014723.7124,-0.163330078125,0.03369140625,0.1510009765625,3667730611849.4756,-0.0233154296875,3667730611849.482,-0.034912109375,0.0814208984375,0.006103515625,0.0123291015625,0.03436279296875,-0.30462646484375,-2164623014723.5725,-0.31494140625,0.099365234375,0.03887939453125,-0.10797119140625,3667730611849.4297,-0.02374267578125,0.01568603515625,0.0294189453125,-0.00689697265625,288041515.1882324,-0.02215576171875,-0.3731689453125,-0.270263671875,3667730611849.455,-0.333984375,-0.01904296875,-0.14111328125,-2164623014723.907,0.007080078125,3975242366.8777466,-0.310302734375,-6787681122.333008,-1503107597125.456,0.04150390625,-4337475311.541378,0.40771484375,-0.14794921875,-0.48211669921875,-3352285020.550547,0.125244140625,0.2061767578125,0.41534423828125,-0.01416015625,0.60986328125,-0.20098876953125,-0.3558349609375,0.042327880859375,-0.37908935546875,-0.171844482421875,1.0443115234375,-0.0958251953125,0.91143798828125,-0.37109375,0.0999755859375,-0.0928955078125,-0.149658203125,0.0,0.0,0.0,0.0,0.0,3667730611849.426,0.0,0.0,0.0
Exiled Force;Main1 Activate,4.4420130401737926e-13,-533791755089.10693,0.28220953292991335,-0.17104874670929004,0.06073409490166892,-0.11821939699143802,0.07270035060141777,1.3860856062705165,-83086523831.66713,-171836743860.35657,-0.07800325479284509,1.003128670606726,-533791755090.42,1.1717321519808046,-533791755091.96606,-0.07359746414504442,1.19589192472846,0.027368519437631522,-0.17587705869317471,-0.3160841171027249,2.2070491816406728,-83086523831.22151,-0.24430612877967045,2.0503480860223835,1.7659557034490188,5191141131.08314,-533791755092.03107,-0.00030246943179559893,1.452658152172106,0.8490824620105539,1.142915035281306,-177434918900.20993,-0.00930883856413045,5893555227.054316,-6989149160.13299,-184520092327.2754,1746682353.6109872,1.26279616355896,-1.796722412109375,-83086523831.19394,-0.221405029296875,-526161661.06219167,-1.798431396484375,2916275595.892207,0.3400115966796875,0.836669921875,-0.197235107421875,0.88311767578125,-0.30908203125,-1.46295166015625,0.0,0.0,2.4973297119140625,0.0,1.222412109375,616878278920.095,0.0,0.0,1.1538543701171875,0.0,0.0,3.715576171875,0.0,0.0,0.0,0.0,0.0,0.0,0.0,2.74212646484375,-83086523831.31976,0.0,0.0,0.0,-83086523830.61757,0.0,0.0
The Tricky;Main1 MonsterSet,-2.541011550328988e-16,-0.19913029935227997,0.3641740729701277,0.46303453694278,0.0012420264154299962,-0.24993594350745643,-0.014263752059695711,-0.290755598796058,-0.06945169717298469,0.002398493982091132,-0.20119078122139278,-0.22955287970882848,0.11878266416265407,0.0796286062512219,0.2749543623442807,0.039321402902994435,0.005001843200332118,0.17501921694776848,0.16919342382589506,-0.06284226193793994,1.6940433604256677e-05,0.22861172633142168,-0.22438872336015875,0.13295753524371334,-0.7809475004577164,-0.23162194852941054,4.249234647771272e-06,-0.31418688426864416,0.016619691905473383,-0.1812293490249206,-0.33007700169906057,-0.0012758395106039488,0.1345839006144346,0.4588122265552522,0.7738796809204104,0.14234206262031923,0.002506017978166991,0.1533033063954775,-0.0006233448387387153,0.06744400770309406,-0.3977977957363468,-5.551115123125783e-17,0.06727536031742337,0.0,0.2537901357388407,-0.08361091146771199,0.0,0.016619691905463686,0.04353705145328973,0.056558777097570706,0.0,0.0,0.025057650843298925,0.0,-0.33007700169906035,0.0,0.0,0.3554961088612622,-0.001715374920278262,0.0,0.5706781953730017,0.0,-0.28480169268910266,-0.1355697010596808,0.0,0.0,0.0,0.0,0.0,0.0,0.0,0.0,0.0,0.0,0.0,0.0,0.0
The Tricky;Main1 Summon,1.9981669933608674e-14,19444388183828.887,334086105555.65344,181647909853.44772,-154263802839.98026,-191688749090.84573,-65721856830.68082,836128067470.9163,21550531218764.695,760111767402.1154,912803566.256599,4109283599695.8057,19277345131042.547,398895158825.75464,18621039366297.594,-106798017349.93275,1585144638119.292,-57506624727.419586,-436320105073.0692,-49330005472441.74,5368628407.773518,14036055555739.018,7917934839680.02,1124573994666.4226,-14604857067.7454,3453570652391.243,1346633880.1324675,-295748355741.43256,140571749341.5465,828825638932.4229,942926084814.7014,-404328980004.70715,-179822302721.26895,8314091587799.592,-209944820428.10156,20025844056074.96,794187422920.143,802354335483.8418,-197545522570.8284,6812442468717.661,534902890318.15234,-0.015625,6758996071375.337,0.0,-654480157608.7891,830651246063.7261,0.0,140571749339.81055,7712554037084.58,7932539696759.197,0.0,0.0,-172519874170.81055,0.0,942926084814.957,0.0,0.0,7550075002142.469,-1991737383400.084,0.0,2245496775066.4043,0.0,831564049630.7461,-432668890803.15234,0.0,0.0,0.0,0.0,0.0,0.0,0.0,0.0,0.0,0.0,0.0,0.0,0.0
